digraph Tree {
node [shape=box] ;
0 [label="Sex <= 0.5\nentropy = 0.957\nsamples = 668\nvalue = [415, 253]"] ;
1 [label="Age <= 6.5\nentropy = 0.7\nsamples = 439\nvalue = [356, 83]"] ;
0 -> 1 [labeldistance=2.5, labelangle=45, headlabel="True"] ;
2 [label="SibSp <= 3.0\nentropy = 0.863\nsamples = 21\nvalue = [6, 15]"] ;
1 -> 2 ;
3 [label="entropy = 0.0\nsamples = 14\nvalue = [0, 14]"] ;
2 -> 3 ;
4 [label="Parch <= 1.5\nentropy = 0.592\nsamples = 7\nvalue = [6, 1]"] ;
2 -> 4 ;
5 [label="entropy = 0.0\nsamples = 4\nvalue = [4, 0]"] ;
4 -> 5 ;
6 [label="Age <= 2.0\nentropy = 0.918\nsamples = 3\nvalue = [2, 1]"] ;
4 -> 6 ;
7 [label="entropy = 0.0\nsamples = 1\nvalue = [1, 0]"] ;
6 -> 7 ;
8 [label="Age <= 3.5\nentropy = 1.0\nsamples = 2\nvalue = [1, 1]"] ;
6 -> 8 ;
9 [label="entropy = 0.0\nsamples = 1\nvalue = [0, 1]"] ;
8 -> 9 ;
10 [label="entropy = 0.0\nsamples = 1\nvalue = [1, 0]"] ;
8 -> 10 ;
11 [label="Fare <= 26.269\nentropy = 0.641\nsamples = 418\nvalue = [350, 68]"] ;
1 -> 11 ;
12 [label="Age <= 13.5\nentropy = 0.509\nsamples = 310\nvalue = [275, 35]"] ;
11 -> 12 ;
13 [label="SibSp <= 0.5\nentropy = 0.918\nsamples = 3\nvalue = [1, 2]"] ;
12 -> 13 ;
14 [label="entropy = 0.0\nsamples = 1\nvalue = [1, 0]"] ;
13 -> 14 ;
15 [label="entropy = 0.0\nsamples = 2\nvalue = [0, 2]"] ;
13 -> 15 ;
16 [label="Age <= 32.5\nentropy = 0.492\nsamples = 307\nvalue = [274, 33]"] ;
12 -> 16 ;
17 [label="Age <= 30.5\nentropy = 0.545\nsamples = 223\nvalue = [195, 28]"] ;
16 -> 17 ;
18 [label="Fare <= 23.35\nentropy = 0.498\nsamples = 210\nvalue = [187, 23]"] ;
17 -> 18 ;
19 [label="Fare <= 22.887\nentropy = 0.515\nsamples = 200\nvalue = [177, 23]"] ;
18 -> 19 ;
20 [label="Fare <= 7.798\nentropy = 0.502\nsamples = 199\nvalue = [177, 22]"] ;
19 -> 20 ;
21 [label="Age <= 20.5\nentropy = 0.617\nsamples = 72\nvalue = [61, 11]"] ;
20 -> 21 ;
22 [label="entropy = 0.0\nsamples = 11\nvalue = [11, 0]"] ;
21 -> 22 ;
23 [label="Age <= 29.35\nentropy = 0.681\nsamples = 61\nvalue = [50, 11]"] ;
21 -> 23 ;
24 [label="Fare <= 7.013\nentropy = 0.89\nsamples = 26\nvalue = [18, 8]"] ;
23 -> 24 ;
25 [label="entropy = 0.0\nsamples = 2\nvalue = [0, 2]"] ;
24 -> 25 ;
26 [label="Fare <= 7.746\nentropy = 0.811\nsamples = 24\nvalue = [18, 6]"] ;
24 -> 26 ;
27 [label="Fare <= 7.227\nentropy = 0.544\nsamples = 16\nvalue = [14, 2]"] ;
26 -> 27 ;
28 [label="Age <= 24.5\nentropy = 0.918\nsamples = 6\nvalue = [4, 2]"] ;
27 -> 28 ;
29 [label="Fare <= 7.133\nentropy = 0.918\nsamples = 3\nvalue = [1, 2]"] ;
28 -> 29 ;
30 [label="entropy = 0.0\nsamples = 1\nvalue = [1, 0]"] ;
29 -> 30 ;
31 [label="entropy = 0.0\nsamples = 2\nvalue = [0, 2]"] ;
29 -> 31 ;
32 [label="entropy = 0.0\nsamples = 3\nvalue = [3, 0]"] ;
28 -> 32 ;
33 [label="entropy = 0.0\nsamples = 10\nvalue = [10, 0]"] ;
27 -> 33 ;
34 [label="SibSp <= 0.5\nentropy = 1.0\nsamples = 8\nvalue = [4, 4]"] ;
26 -> 34 ;
35 [label="Fare <= 7.763\nentropy = 0.985\nsamples = 7\nvalue = [4, 3]"] ;
34 -> 35 ;
36 [label="entropy = 0.0\nsamples = 1\nvalue = [0, 1]"] ;
35 -> 36 ;
37 [label="Age <= 21.5\nentropy = 0.918\nsamples = 6\nvalue = [4, 2]"] ;
35 -> 37 ;
38 [label="entropy = 0.0\nsamples = 1\nvalue = [0, 1]"] ;
37 -> 38 ;
39 [label="Age <= 26.5\nentropy = 0.722\nsamples = 5\nvalue = [4, 1]"] ;
37 -> 39 ;
40 [label="entropy = 0.0\nsamples = 3\nvalue = [3, 0]"] ;
39 -> 40 ;
41 [label="Age <= 27.5\nentropy = 1.0\nsamples = 2\nvalue = [1, 1]"] ;
39 -> 41 ;
42 [label="entropy = 0.0\nsamples = 1\nvalue = [0, 1]"] ;
41 -> 42 ;
43 [label="entropy = 0.0\nsamples = 1\nvalue = [1, 0]"] ;
41 -> 43 ;
44 [label="entropy = 0.0\nsamples = 1\nvalue = [0, 1]"] ;
34 -> 44 ;
45 [label="Fare <= 7.227\nentropy = 0.422\nsamples = 35\nvalue = [32, 3]"] ;
23 -> 45 ;
46 [label="entropy = 0.0\nsamples = 13\nvalue = [13, 0]"] ;
45 -> 46 ;
47 [label="Fare <= 7.763\nentropy = 0.575\nsamples = 22\nvalue = [19, 3]"] ;
45 -> 47 ;
48 [label="SibSp <= 0.5\nentropy = 0.469\nsamples = 20\nvalue = [18, 2]"] ;
47 -> 48 ;
49 [label="Age <= 29.85\nentropy = 0.485\nsamples = 19\nvalue = [17, 2]"] ;
48 -> 49 ;
50 [label="Fare <= 7.24\nentropy = 0.503\nsamples = 18\nvalue = [16, 2]"] ;
49 -> 50 ;
51 [label="entropy = 0.65\nsamples = 6\nvalue = [5, 1]"] ;
50 -> 51 ;
52 [label="Fare <= 7.742\nentropy = 0.414\nsamples = 12\nvalue = [11, 1]"] ;
50 -> 52 ;
53 [label="entropy = 0.0\nsamples = 4\nvalue = [4, 0]"] ;
52 -> 53 ;
54 [label="entropy = 0.544\nsamples = 8\nvalue = [7, 1]"] ;
52 -> 54 ;
55 [label="entropy = 0.0\nsamples = 1\nvalue = [1, 0]"] ;
49 -> 55 ;
56 [label="entropy = 0.0\nsamples = 1\nvalue = [1, 0]"] ;
48 -> 56 ;
57 [label="entropy = 1.0\nsamples = 2\nvalue = [1, 1]"] ;
47 -> 57 ;
58 [label="Age <= 20.5\nentropy = 0.425\nsamples = 127\nvalue = [116, 11]"] ;
20 -> 58 ;
59 [label="SibSp <= 0.5\nentropy = 0.65\nsamples = 30\nvalue = [25, 5]"] ;
58 -> 59 ;
60 [label="Fare <= 8.175\nentropy = 0.516\nsamples = 26\nvalue = [23, 3]"] ;
59 -> 60 ;
61 [label="Fare <= 7.973\nentropy = 0.764\nsamples = 9\nvalue = [7, 2]"] ;
60 -> 61 ;
62 [label="entropy = 0.0\nsamples = 4\nvalue = [4, 0]"] ;
61 -> 62 ;
63 [label="Age <= 19.5\nentropy = 0.971\nsamples = 5\nvalue = [3, 2]"] ;
61 -> 63 ;
64 [label="Age <= 17.5\nentropy = 1.0\nsamples = 4\nvalue = [2, 2]"] ;
63 -> 64 ;
65 [label="entropy = 1.0\nsamples = 2\nvalue = [1, 1]"] ;
64 -> 65 ;
66 [label="entropy = 1.0\nsamples = 2\nvalue = [1, 1]"] ;
64 -> 66 ;
67 [label="entropy = 0.0\nsamples = 1\nvalue = [1, 0]"] ;
63 -> 67 ;
68 [label="Pclass <= 2.5\nentropy = 0.323\nsamples = 17\nvalue = [16, 1]"] ;
60 -> 68 ;
69 [label="Fare <= 11.0\nentropy = 0.592\nsamples = 7\nvalue = [6, 1]"] ;
68 -> 69 ;
70 [label="Age <= 17.5\nentropy = 0.918\nsamples = 3\nvalue = [2, 1]"] ;
69 -> 70 ;
71 [label="entropy = 0.0\nsamples = 1\nvalue = [1, 0]"] ;
70 -> 71 ;
72 [label="entropy = 1.0\nsamples = 2\nvalue = [1, 1]"] ;
70 -> 72 ;
73 [label="entropy = 0.0\nsamples = 4\nvalue = [4, 0]"] ;
69 -> 73 ;
74 [label="entropy = 0.0\nsamples = 10\nvalue = [10, 0]"] ;
68 -> 74 ;
75 [label="Age <= 19.0\nentropy = 1.0\nsamples = 4\nvalue = [2, 2]"] ;
59 -> 75 ;
76 [label="entropy = 0.0\nsamples = 2\nvalue = [2, 0]"] ;
75 -> 76 ;
77 [label="entropy = 0.0\nsamples = 2\nvalue = [0, 2]"] ;
75 -> 77 ;
78 [label="Age <= 25.5\nentropy = 0.335\nsamples = 97\nvalue = [91, 6]"] ;
58 -> 78 ;
79 [label="entropy = 0.0\nsamples = 28\nvalue = [28, 0]"] ;
78 -> 79 ;
80 [label="Fare <= 8.081\nentropy = 0.426\nsamples = 69\nvalue = [63, 6]"] ;
78 -> 80 ;
81 [label="Age <= 29.35\nentropy = 0.191\nsamples = 34\nvalue = [33, 1]"] ;
80 -> 81 ;
82 [label="Age <= 28.5\nentropy = 0.503\nsamples = 9\nvalue = [8, 1]"] ;
81 -> 82 ;
83 [label="entropy = 0.0\nsamples = 7\nvalue = [7, 0]"] ;
82 -> 83 ;
84 [label="Fare <= 7.973\nentropy = 1.0\nsamples = 2\nvalue = [1, 1]"] ;
82 -> 84 ;
85 [label="entropy = 0.0\nsamples = 1\nvalue = [0, 1]"] ;
84 -> 85 ;
86 [label="entropy = 0.0\nsamples = 1\nvalue = [1, 0]"] ;
84 -> 86 ;
87 [label="entropy = 0.0\nsamples = 25\nvalue = [25, 0]"] ;
81 -> 87 ;
88 [label="SibSp <= 0.5\nentropy = 0.592\nsamples = 35\nvalue = [30, 5]"] ;
80 -> 88 ;
89 [label="Fare <= 9.081\nentropy = 0.755\nsamples = 23\nvalue = [18, 5]"] ;
88 -> 89 ;
90 [label="Fare <= 8.388\nentropy = 0.918\nsamples = 3\nvalue = [1, 2]"] ;
89 -> 90 ;
91 [label="entropy = 0.0\nsamples = 1\nvalue = [0, 1]"] ;
90 -> 91 ;
92 [label="Age <= 28.35\nentropy = 1.0\nsamples = 2\nvalue = [1, 1]"] ;
90 -> 92 ;
93 [label="entropy = 0.0\nsamples = 1\nvalue = [0, 1]"] ;
92 -> 93 ;
94 [label="entropy = 0.0\nsamples = 1\nvalue = [1, 0]"] ;
92 -> 94 ;
95 [label="Fare <= 11.75\nentropy = 0.61\nsamples = 20\nvalue = [17, 3]"] ;
89 -> 95 ;
96 [label="entropy = 0.0\nsamples = 7\nvalue = [7, 0]"] ;
95 -> 96 ;
97 [label="Age <= 26.5\nentropy = 0.779\nsamples = 13\nvalue = [10, 3]"] ;
95 -> 97 ;
98 [label="entropy = 0.0\nsamples = 1\nvalue = [0, 1]"] ;
97 -> 98 ;
99 [label="Fare <= 14.181\nentropy = 0.65\nsamples = 12\nvalue = [10, 2]"] ;
97 -> 99 ;
100 [label="Fare <= 13.681\nentropy = 0.918\nsamples = 6\nvalue = [4, 2]"] ;
99 -> 100 ;
101 [label="Age <= 28.85\nentropy = 0.722\nsamples = 5\nvalue = [4, 1]"] ;
100 -> 101 ;
102 [label="entropy = 0.0\nsamples = 2\nvalue = [2, 0]"] ;
101 -> 102 ;
103 [label="Age <= 29.85\nentropy = 0.918\nsamples = 3\nvalue = [2, 1]"] ;
101 -> 103 ;
104 [label="entropy = 0.0\nsamples = 1\nvalue = [0, 1]"] ;
103 -> 104 ;
105 [label="entropy = 0.0\nsamples = 2\nvalue = [2, 0]"] ;
103 -> 105 ;
106 [label="entropy = 0.0\nsamples = 1\nvalue = [0, 1]"] ;
100 -> 106 ;
107 [label="entropy = 0.0\nsamples = 6\nvalue = [6, 0]"] ;
99 -> 107 ;
108 [label="entropy = 0.0\nsamples = 12\nvalue = [12, 0]"] ;
88 -> 108 ;
109 [label="entropy = 0.0\nsamples = 1\nvalue = [0, 1]"] ;
19 -> 109 ;
110 [label="entropy = 0.0\nsamples = 10\nvalue = [10, 0]"] ;
18 -> 110 ;
111 [label="Fare <= 7.815\nentropy = 0.961\nsamples = 13\nvalue = [8, 5]"] ;
17 -> 111 ;
112 [label="entropy = 0.0\nsamples = 3\nvalue = [3, 0]"] ;
111 -> 112 ;
113 [label="Fare <= 8.206\nentropy = 1.0\nsamples = 10\nvalue = [5, 5]"] ;
111 -> 113 ;
114 [label="Fare <= 7.875\nentropy = 0.918\nsamples = 6\nvalue = [2, 4]"] ;
113 -> 114 ;
115 [label="entropy = 0.0\nsamples = 1\nvalue = [0, 1]"] ;
114 -> 115 ;
116 [label="Fare <= 7.91\nentropy = 0.971\nsamples = 5\nvalue = [2, 3]"] ;
114 -> 116 ;
117 [label="entropy = 0.0\nsamples = 1\nvalue = [1, 0]"] ;
116 -> 117 ;
118 [label="Fare <= 7.988\nentropy = 0.811\nsamples = 4\nvalue = [1, 3]"] ;
116 -> 118 ;
119 [label="Age <= 31.5\nentropy = 0.918\nsamples = 3\nvalue = [1, 2]"] ;
118 -> 119 ;
120 [label="entropy = 0.0\nsamples = 1\nvalue = [0, 1]"] ;
119 -> 120 ;
121 [label="entropy = 1.0\nsamples = 2\nvalue = [1, 1]"] ;
119 -> 121 ;
122 [label="entropy = 0.0\nsamples = 1\nvalue = [0, 1]"] ;
118 -> 122 ;
123 [label="Pclass <= 2.5\nentropy = 0.811\nsamples = 4\nvalue = [3, 1]"] ;
113 -> 123 ;
124 [label="Fare <= 26.125\nentropy = 1.0\nsamples = 2\nvalue = [1, 1]"] ;
123 -> 124 ;
125 [label="entropy = 0.0\nsamples = 1\nvalue = [0, 1]"] ;
124 -> 125 ;
126 [label="entropy = 0.0\nsamples = 1\nvalue = [1, 0]"] ;
124 -> 126 ;
127 [label="entropy = 0.0\nsamples = 2\nvalue = [2, 0]"] ;
123 -> 127 ;
128 [label="Fare <= 7.91\nentropy = 0.326\nsamples = 84\nvalue = [79, 5]"] ;
16 -> 128 ;
129 [label="entropy = 0.0\nsamples = 29\nvalue = [29, 0]"] ;
128 -> 129 ;
130 [label="Fare <= 13.25\nentropy = 0.439\nsamples = 55\nvalue = [50, 5]"] ;
128 -> 130 ;
131 [label="Fare <= 7.988\nentropy = 0.625\nsamples = 32\nvalue = [27, 5]"] ;
130 -> 131 ;
132 [label="SibSp <= 1.0\nentropy = 1.0\nsamples = 4\nvalue = [2, 2]"] ;
131 -> 132 ;
133 [label="Age <= 41.5\nentropy = 0.918\nsamples = 3\nvalue = [1, 2]"] ;
132 -> 133 ;
134 [label="entropy = 1.0\nsamples = 2\nvalue = [1, 1]"] ;
133 -> 134 ;
135 [label="entropy = 0.0\nsamples = 1\nvalue = [0, 1]"] ;
133 -> 135 ;
136 [label="entropy = 0.0\nsamples = 1\nvalue = [1, 0]"] ;
132 -> 136 ;
137 [label="Pclass <= 2.5\nentropy = 0.491\nsamples = 28\nvalue = [25, 3]"] ;
131 -> 137 ;
138 [label="Age <= 34.5\nentropy = 0.75\nsamples = 14\nvalue = [11, 3]"] ;
137 -> 138 ;
139 [label="entropy = 1.0\nsamples = 2\nvalue = [1, 1]"] ;
138 -> 139 ;
140 [label="Age <= 59.5\nentropy = 0.65\nsamples = 12\nvalue = [10, 2]"] ;
138 -> 140 ;
141 [label="Age <= 45.0\nentropy = 0.469\nsamples = 10\nvalue = [9, 1]"] ;
140 -> 141 ;
142 [label="Age <= 40.5\nentropy = 0.722\nsamples = 5\nvalue = [4, 1]"] ;
141 -> 142 ;
143 [label="entropy = 0.0\nsamples = 3\nvalue = [3, 0]"] ;
142 -> 143 ;
144 [label="entropy = 1.0\nsamples = 2\nvalue = [1, 1]"] ;
142 -> 144 ;
145 [label="entropy = 0.0\nsamples = 5\nvalue = [5, 0]"] ;
141 -> 145 ;
146 [label="Age <= 66.0\nentropy = 1.0\nsamples = 2\nvalue = [1, 1]"] ;
140 -> 146 ;
147 [label="entropy = 0.0\nsamples = 1\nvalue = [0, 1]"] ;
146 -> 147 ;
148 [label="entropy = 0.0\nsamples = 1\nvalue = [1, 0]"] ;
146 -> 148 ;
149 [label="entropy = 0.0\nsamples = 14\nvalue = [14, 0]"] ;
137 -> 149 ;
150 [label="entropy = 0.0\nsamples = 23\nvalue = [23, 0]"] ;
130 -> 150 ;
151 [label="SibSp <= 2.5\nentropy = 0.888\nsamples = 108\nvalue = [75, 33]"] ;
11 -> 151 ;
152 [label="Age <= 17.5\nentropy = 0.932\nsamples = 95\nvalue = [62, 33]"] ;
151 -> 152 ;
153 [label="entropy = 0.0\nsamples = 2\nvalue = [0, 2]"] ;
152 -> 153 ;
154 [label="Age <= 24.5\nentropy = 0.918\nsamples = 93\nvalue = [62, 31]"] ;
152 -> 154 ;
155 [label="entropy = 0.0\nsamples = 7\nvalue = [7, 0]"] ;
154 -> 155 ;
156 [label="Age <= 27.5\nentropy = 0.943\nsamples = 86\nvalue = [55, 31]"] ;
154 -> 156 ;
157 [label="Parch <= 1.0\nentropy = 0.592\nsamples = 7\nvalue = [1, 6]"] ;
156 -> 157 ;
158 [label="entropy = 0.0\nsamples = 6\nvalue = [0, 6]"] ;
157 -> 158 ;
159 [label="entropy = 0.0\nsamples = 1\nvalue = [1, 0]"] ;
157 -> 159 ;
160 [label="Fare <= 26.419\nentropy = 0.9\nsamples = 79\nvalue = [54, 25]"] ;
156 -> 160 ;
161 [label="entropy = 0.0\nsamples = 2\nvalue = [0, 2]"] ;
160 -> 161 ;
162 [label="Fare <= 387.665\nentropy = 0.88\nsamples = 77\nvalue = [54, 23]"] ;
160 -> 162 ;
163 [label="Age <= 75.0\nentropy = 0.855\nsamples = 75\nvalue = [54, 21]"] ;
162 -> 163 ;
164 [label="Age <= 60.5\nentropy = 0.842\nsamples = 74\nvalue = [54, 20]"] ;
163 -> 164 ;
165 [label="Fare <= 26.775\nentropy = 0.874\nsamples = 68\nvalue = [48, 20]"] ;
164 -> 165 ;
166 [label="Age <= 53.5\nentropy = 0.985\nsamples = 7\nvalue = [3, 4]"] ;
165 -> 166 ;
167 [label="Age <= 37.35\nentropy = 0.722\nsamples = 5\nvalue = [1, 4]"] ;
166 -> 167 ;
168 [label="Age <= 28.85\nentropy = 1.0\nsamples = 2\nvalue = [1, 1]"] ;
167 -> 168 ;
169 [label="entropy = 0.0\nsamples = 1\nvalue = [0, 1]"] ;
168 -> 169 ;
170 [label="entropy = 0.0\nsamples = 1\nvalue = [1, 0]"] ;
168 -> 170 ;
171 [label="entropy = 0.0\nsamples = 3\nvalue = [0, 3]"] ;
167 -> 171 ;
172 [label="entropy = 0.0\nsamples = 2\nvalue = [2, 0]"] ;
166 -> 172 ;
173 [label="Age <= 29.35\nentropy = 0.83\nsamples = 61\nvalue = [45, 16]"] ;
165 -> 173 ;
174 [label="entropy = 0.0\nsamples = 6\nvalue = [6, 0]"] ;
173 -> 174 ;
175 [label="Fare <= 28.725\nentropy = 0.87\nsamples = 55\nvalue = [39, 16]"] ;
173 -> 175 ;
176 [label="entropy = 0.0\nsamples = 5\nvalue = [5, 0]"] ;
175 -> 176 ;
177 [label="Fare <= 30.75\nentropy = 0.904\nsamples = 50\nvalue = [34, 16]"] ;
175 -> 177 ;
178 [label="Age <= 32.25\nentropy = 0.991\nsamples = 9\nvalue = [4, 5]"] ;
177 -> 178 ;
179 [label="entropy = 0.0\nsamples = 4\nvalue = [0, 4]"] ;
178 -> 179 ;
180 [label="Fare <= 30.285\nentropy = 0.722\nsamples = 5\nvalue = [4, 1]"] ;
178 -> 180 ;
181 [label="entropy = 0.0\nsamples = 3\nvalue = [3, 0]"] ;
180 -> 181 ;
182 [label="Age <= 53.5\nentropy = 1.0\nsamples = 2\nvalue = [1, 1]"] ;
180 -> 182 ;
183 [label="entropy = 0.0\nsamples = 1\nvalue = [0, 1]"] ;
182 -> 183 ;
184 [label="entropy = 0.0\nsamples = 1\nvalue = [1, 0]"] ;
182 -> 184 ;
185 [label="Fare <= 52.277\nentropy = 0.839\nsamples = 41\nvalue = [30, 11]"] ;
177 -> 185 ;
186 [label="Age <= 55.0\nentropy = 0.323\nsamples = 17\nvalue = [16, 1]"] ;
185 -> 186 ;
187 [label="entropy = 0.0\nsamples = 15\nvalue = [15, 0]"] ;
186 -> 187 ;
188 [label="Fare <= 37.25\nentropy = 1.0\nsamples = 2\nvalue = [1, 1]"] ;
186 -> 188 ;
189 [label="entropy = 0.0\nsamples = 1\nvalue = [0, 1]"] ;
188 -> 189 ;
190 [label="entropy = 0.0\nsamples = 1\nvalue = [1, 0]"] ;
188 -> 190 ;
191 [label="Fare <= 59.087\nentropy = 0.98\nsamples = 24\nvalue = [14, 10]"] ;
185 -> 191 ;
192 [label="Age <= 43.5\nentropy = 0.863\nsamples = 7\nvalue = [2, 5]"] ;
191 -> 192 ;
193 [label="Age <= 30.35\nentropy = 0.65\nsamples = 6\nvalue = [1, 5]"] ;
192 -> 193 ;
194 [label="entropy = 1.0\nsamples = 2\nvalue = [1, 1]"] ;
193 -> 194 ;
195 [label="entropy = 0.0\nsamples = 4\nvalue = [0, 4]"] ;
193 -> 195 ;
196 [label="entropy = 0.0\nsamples = 1\nvalue = [1, 0]"] ;
192 -> 196 ;
197 [label="SibSp <= 0.5\nentropy = 0.874\nsamples = 17\nvalue = [12, 5]"] ;
191 -> 197 ;
198 [label="entropy = 0.0\nsamples = 4\nvalue = [4, 0]"] ;
197 -> 198 ;
199 [label="Age <= 47.0\nentropy = 0.961\nsamples = 13\nvalue = [8, 5]"] ;
197 -> 199 ;
200 [label="Fare <= 86.737\nentropy = 0.65\nsamples = 6\nvalue = [5, 1]"] ;
199 -> 200 ;
201 [label="entropy = 0.0\nsamples = 4\nvalue = [4, 0]"] ;
200 -> 201 ;
202 [label="Age <= 41.0\nentropy = 1.0\nsamples = 2\nvalue = [1, 1]"] ;
200 -> 202 ;
203 [label="entropy = 0.0\nsamples = 1\nvalue = [0, 1]"] ;
202 -> 203 ;
204 [label="entropy = 0.0\nsamples = 1\nvalue = [1, 0]"] ;
202 -> 204 ;
205 [label="Fare <= 79.425\nentropy = 0.985\nsamples = 7\nvalue = [3, 4]"] ;
199 -> 205 ;
206 [label="entropy = 0.0\nsamples = 2\nvalue = [0, 2]"] ;
205 -> 206 ;
207 [label="Parch <= 0.5\nentropy = 0.971\nsamples = 5\nvalue = [3, 2]"] ;
205 -> 207 ;
208 [label="Fare <= 97.765\nentropy = 0.918\nsamples = 3\nvalue = [1, 2]"] ;
207 -> 208 ;
209 [label="entropy = 0.0\nsamples = 1\nvalue = [0, 1]"] ;
208 -> 209 ;
210 [label="Fare <= 120.037\nentropy = 1.0\nsamples = 2\nvalue = [1, 1]"] ;
208 -> 210 ;
211 [label="entropy = 0.0\nsamples = 1\nvalue = [1, 0]"] ;
210 -> 211 ;
212 [label="entropy = 0.0\nsamples = 1\nvalue = [0, 1]"] ;
210 -> 212 ;
213 [label="entropy = 0.0\nsamples = 2\nvalue = [2, 0]"] ;
207 -> 213 ;
214 [label="entropy = 0.0\nsamples = 6\nvalue = [6, 0]"] ;
164 -> 214 ;
215 [label="entropy = 0.0\nsamples = 1\nvalue = [0, 1]"] ;
163 -> 215 ;
216 [label="entropy = 0.0\nsamples = 2\nvalue = [0, 2]"] ;
162 -> 216 ;
217 [label="entropy = 0.0\nsamples = 13\nvalue = [13, 0]"] ;
151 -> 217 ;
218 [label="Pclass <= 2.5\nentropy = 0.823\nsamples = 229\nvalue = [59, 170]"] ;
0 -> 218 [labeldistance=2.5, labelangle=-45, headlabel="False"] ;
219 [label="Age <= 2.5\nentropy = 0.211\nsamples = 120\nvalue = [4, 116]"] ;
218 -> 219 ;
220 [label="Parch <= 1.5\nentropy = 1.0\nsamples = 2\nvalue = [1, 1]"] ;
219 -> 220 ;
221 [label="entropy = 0.0\nsamples = 1\nvalue = [0, 1]"] ;
220 -> 221 ;
222 [label="entropy = 0.0\nsamples = 1\nvalue = [1, 0]"] ;
220 -> 222 ;
223 [label="Age <= 24.5\nentropy = 0.171\nsamples = 118\nvalue = [3, 115]"] ;
219 -> 223 ;
224 [label="entropy = 0.0\nsamples = 38\nvalue = [0, 38]"] ;
223 -> 224 ;
225 [label="Age <= 27.5\nentropy = 0.231\nsamples = 80\nvalue = [3, 77]"] ;
223 -> 225 ;
226 [label="Fare <= 17.429\nentropy = 1.0\nsamples = 4\nvalue = [2, 2]"] ;
225 -> 226 ;
227 [label="entropy = 0.0\nsamples = 2\nvalue = [0, 2]"] ;
226 -> 227 ;
228 [label="entropy = 0.0\nsamples = 2\nvalue = [2, 0]"] ;
226 -> 228 ;
229 [label="Age <= 49.5\nentropy = 0.101\nsamples = 76\nvalue = [1, 75]"] ;
225 -> 229 ;
230 [label="entropy = 0.0\nsamples = 61\nvalue = [0, 61]"] ;
229 -> 230 ;
231 [label="Age <= 50.5\nentropy = 0.353\nsamples = 15\nvalue = [1, 14]"] ;
229 -> 231 ;
232 [label="Fare <= 19.606\nentropy = 0.918\nsamples = 3\nvalue = [1, 2]"] ;
231 -> 232 ;
233 [label="entropy = 0.0\nsamples = 2\nvalue = [0, 2]"] ;
232 -> 233 ;
234 [label="entropy = 0.0\nsamples = 1\nvalue = [1, 0]"] ;
232 -> 234 ;
235 [label="entropy = 0.0\nsamples = 12\nvalue = [0, 12]"] ;
231 -> 235 ;
236 [label="Fare <= 23.35\nentropy = 1.0\nsamples = 109\nvalue = [55, 54]"] ;
218 -> 236 ;
237 [label="Age <= 36.5\nentropy = 0.98\nsamples = 91\nvalue = [38, 53]"] ;
236 -> 237 ;
238 [label="Age <= 1.5\nentropy = 0.965\nsamples = 87\nvalue = [34, 53]"] ;
237 -> 238 ;
239 [label="entropy = 0.0\nsamples = 4\nvalue = [0, 4]"] ;
238 -> 239 ;
240 [label="Fare <= 7.744\nentropy = 0.976\nsamples = 83\nvalue = [34, 49]"] ;
238 -> 240 ;
241 [label="Fare <= 6.987\nentropy = 0.619\nsamples = 13\nvalue = [2, 11]"] ;
240 -> 241 ;
242 [label="entropy = 0.0\nsamples = 1\nvalue = [1, 0]"] ;
241 -> 242 ;
243 [label="Fare <= 7.59\nentropy = 0.414\nsamples = 12\nvalue = [1, 11]"] ;
241 -> 243 ;
244 [label="entropy = 0.0\nsamples = 7\nvalue = [0, 7]"] ;
243 -> 244 ;
245 [label="Fare <= 7.64\nentropy = 0.722\nsamples = 5\nvalue = [1, 4]"] ;
243 -> 245 ;
246 [label="entropy = 0.0\nsamples = 1\nvalue = [1, 0]"] ;
245 -> 246 ;
247 [label="entropy = 0.0\nsamples = 4\nvalue = [0, 4]"] ;
245 -> 247 ;
248 [label="Age <= 29.35\nentropy = 0.995\nsamples = 70\nvalue = [32, 38]"] ;
240 -> 248 ;
249 [label="Parch <= 1.5\nentropy = 0.985\nsamples = 42\nvalue = [24, 18]"] ;
248 -> 249 ;
250 [label="SibSp <= 0.5\nentropy = 0.928\nsamples = 35\nvalue = [23, 12]"] ;
249 -> 250 ;
251 [label="Age <= 25.5\nentropy = 0.995\nsamples = 24\nvalue = [13, 11]"] ;
250 -> 251 ;
252 [label="Age <= 22.5\nentropy = 0.949\nsamples = 19\nvalue = [12, 7]"] ;
251 -> 252 ;
253 [label="Fare <= 13.935\nentropy = 0.989\nsamples = 16\nvalue = [9, 7]"] ;
252 -> 253 ;
254 [label="Fare <= 11.402\nentropy = 1.0\nsamples = 14\nvalue = [7, 7]"] ;
253 -> 254 ;
255 [label="Fare <= 10.152\nentropy = 0.98\nsamples = 12\nvalue = [7, 5]"] ;
254 -> 255 ;
256 [label="Age <= 14.5\nentropy = 1.0\nsamples = 10\nvalue = [5, 5]"] ;
255 -> 256 ;
257 [label="entropy = 0.0\nsamples = 1\nvalue = [1, 0]"] ;
256 -> 257 ;
258 [label="Age <= 16.5\nentropy = 0.991\nsamples = 9\nvalue = [4, 5]"] ;
256 -> 258 ;
259 [label="entropy = 0.0\nsamples = 1\nvalue = [0, 1]"] ;
258 -> 259 ;
260 [label="Fare <= 9.84\nentropy = 1.0\nsamples = 8\nvalue = [4, 4]"] ;
258 -> 260 ;
261 [label="Parch <= 0.5\nentropy = 0.985\nsamples = 7\nvalue = [4, 3]"] ;
260 -> 261 ;
262 [label="Age <= 21.5\nentropy = 0.918\nsamples = 6\nvalue = [4, 2]"] ;
261 -> 262 ;
263 [label="entropy = 0.0\nsamples = 3\nvalue = [3, 0]"] ;
262 -> 263 ;
264 [label="Fare <= 8.806\nentropy = 0.918\nsamples = 3\nvalue = [1, 2]"] ;
262 -> 264 ;
265 [label="entropy = 0.0\nsamples = 2\nvalue = [0, 2]"] ;
264 -> 265 ;
266 [label="entropy = 0.0\nsamples = 1\nvalue = [1, 0]"] ;
264 -> 266 ;
267 [label="entropy = 0.0\nsamples = 1\nvalue = [0, 1]"] ;
261 -> 267 ;
268 [label="entropy = 0.0\nsamples = 1\nvalue = [0, 1]"] ;
260 -> 268 ;
269 [label="entropy = 0.0\nsamples = 2\nvalue = [2, 0]"] ;
255 -> 269 ;
270 [label="entropy = 0.0\nsamples = 2\nvalue = [0, 2]"] ;
254 -> 270 ;
271 [label="entropy = 0.0\nsamples = 2\nvalue = [2, 0]"] ;
253 -> 271 ;
272 [label="entropy = 0.0\nsamples = 3\nvalue = [3, 0]"] ;
252 -> 272 ;
273 [label="Age <= 27.5\nentropy = 0.722\nsamples = 5\nvalue = [1, 4]"] ;
251 -> 273 ;
274 [label="entropy = 0.0\nsamples = 4\nvalue = [0, 4]"] ;
273 -> 274 ;
275 [label="entropy = 0.0\nsamples = 1\nvalue = [1, 0]"] ;
273 -> 275 ;
276 [label="Fare <= 15.152\nentropy = 0.439\nsamples = 11\nvalue = [10, 1]"] ;
250 -> 276 ;
277 [label="entropy = 0.0\nsamples = 6\nvalue = [6, 0]"] ;
276 -> 277 ;
278 [label="Fare <= 15.975\nentropy = 0.722\nsamples = 5\nvalue = [4, 1]"] ;
276 -> 278 ;
279 [label="entropy = 0.0\nsamples = 1\nvalue = [0, 1]"] ;
278 -> 279 ;
280 [label="entropy = 0.0\nsamples = 4\nvalue = [4, 0]"] ;
278 -> 280 ;
281 [label="Parch <= 3.5\nentropy = 0.592\nsamples = 7\nvalue = [1, 6]"] ;
249 -> 281 ;
282 [label="entropy = 0.0\nsamples = 6\nvalue = [0, 6]"] ;
281 -> 282 ;
283 [label="entropy = 0.0\nsamples = 1\nvalue = [1, 0]"] ;
281 -> 283 ;
284 [label="Parch <= 1.5\nentropy = 0.863\nsamples = 28\nvalue = [8, 20]"] ;
248 -> 284 ;
285 [label="Fare <= 14.977\nentropy = 0.779\nsamples = 26\nvalue = [6, 20]"] ;
284 -> 285 ;
286 [label="Fare <= 7.965\nentropy = 0.94\nsamples = 14\nvalue = [5, 9]"] ;
285 -> 286 ;
287 [label="Fare <= 7.815\nentropy = 0.544\nsamples = 8\nvalue = [1, 7]"] ;
286 -> 287 ;
288 [label="entropy = 0.65\nsamples = 6\nvalue = [1, 5]"] ;
287 -> 288 ;
289 [label="entropy = 0.0\nsamples = 2\nvalue = [0, 2]"] ;
287 -> 289 ;
290 [label="Age <= 29.85\nentropy = 0.918\nsamples = 6\nvalue = [4, 2]"] ;
286 -> 290 ;
291 [label="entropy = 0.0\nsamples = 4\nvalue = [4, 0]"] ;
290 -> 291 ;
292 [label="entropy = 0.0\nsamples = 2\nvalue = [0, 2]"] ;
290 -> 292 ;
293 [label="Fare <= 17.7\nentropy = 0.414\nsamples = 12\nvalue = [1, 11]"] ;
285 -> 293 ;
294 [label="entropy = 0.0\nsamples = 7\nvalue = [0, 7]"] ;
293 -> 294 ;
295 [label="Fare <= 19.125\nentropy = 0.722\nsamples = 5\nvalue = [1, 4]"] ;
293 -> 295 ;
296 [label="entropy = 0.0\nsamples = 1\nvalue = [1, 0]"] ;
295 -> 296 ;
297 [label="entropy = 0.0\nsamples = 4\nvalue = [0, 4]"] ;
295 -> 297 ;
298 [label="entropy = 0.0\nsamples = 2\nvalue = [2, 0]"] ;
284 -> 298 ;
299 [label="entropy = 0.0\nsamples = 4\nvalue = [4, 0]"] ;
237 -> 299 ;
300 [label="Age <= 7.0\nentropy = 0.31\nsamples = 18\nvalue = [17, 1]"] ;
236 -> 300 ;
301 [label="Age <= 3.5\nentropy = 0.918\nsamples = 3\nvalue = [2, 1]"] ;
300 -> 301 ;
302 [label="entropy = 0.0\nsamples = 2\nvalue = [2, 0]"] ;
301 -> 302 ;
303 [label="entropy = 0.0\nsamples = 1\nvalue = [0, 1]"] ;
301 -> 303 ;
304 [label="entropy = 0.0\nsamples = 15\nvalue = [15, 0]"] ;
300 -> 304 ;
}